{"hidden_weights": [[-1.1464833717698157, -1.1933003359569248, 0.39123229550406835, -0.37233392908348045, -0.7411945452963759, 0.006118863529260478, -0.3815751660388733, 0.32130166157511497], [-0.415671151672208, -1.001110895662168, -0.31768504950521376, 1.0239842254001972, 0.10747579864402756, -0.26945375349775946, -0.5140901054129756, 0.8984212552819597], [-0.6189020932326919, -0.6523248681150486, 0.8227312415171891, -0.5429743428968827, -0.06054330317459233, 0.36158804760791025, -0.8809049677924656, -0.8478324068185089], [0.19191893849031966, 0.07130218909812133, 1.5378369199120856, 0.07601406386492872, -0.7011910591713366, -0.7858457770666868, -0.10425692062589004, -0.8887707896473138], [-0.6056432581980421, 0.3072861266470601, -1.1828469224794487, 1.489385193367165, 1.5611786854224479, 0.7475567167366737, -1.1160336661141854, 2.3169862476178142], [-1.1526075298329987, 1.0636662546415065, -0.5870134090443535, 1.9033670006413628, -1.2585956397769649, 0.31605655952591444, 0.5114096974226721, -0.9744732924802155], [0.40635567392801075, -0.5790204966140824, 0.3510295968264918, 0.9343724973673819, -0.6023230889575433, 0.19643344538716523, 0.4513963373545258, 1.0853104216002105], [0.8333003493670268, 0.44809915938672795, 1.640133448778049, -0.733197321810921, -0.2821129616761888, -0.3583101662449235, 0.35947008704759104, -0.1047780062234961], [0.4642428954830169, -0.9636423905944914, -0.36649247228306847, 0.49373616162813394, -0.31491929747219316, -0.4812585782448354, 1.8540297347590653, 0.44315794123965796], [-0.6703563973747828, 0.3739983618964436, 0.5189462555520865, -0.03255427241115466, 0.8802438273755987, 0.37281348671114983, -0.016992610878762526, -0.3534368190114394]], "hidden_biases": [0.045409988052760836, -0.683155523969623, -0.07401469570727398, -0.13474333490213633, 0.008641746885577797, 0.09546846852599504, -0.3697198119144746, 0.6873810170432142, -0.9717117863993487, 0.1580743564247852], "output_weights": [[-0.35386134537594216, 1.8639905519117548, -0.348287914730131, 0.08180401642232249, 1.588894901001558, 1.4457857502546947, 0.27588895626503607, -0.9195118065660526, -0.5488716342371786, -0.8488842613624207], [-1.4587131716449553, -0.9419623079738118, 1.2847476338535633, 2.0318243514456675, -1.126812694052516, -0.09295764589643796, 0.8070139042628394, -0.8890495099821537, -1.5080960306242404, -0.3816872516250344], [-0.8017961985529073, -1.1733645721131414, 1.0882894075967995, -0.8550939479531834, -2.0876971887487885, -1.0284622273621886, -0.9743854575891411, -0.7198023322845348, 0.5462182986865494, 0.13837736570324274], [-0.603999801070775, -1.7678451506928057, 0.3843808674720761, -1.7043010534060699, 1.7005362550433418, -1.8542524707572738, -1.6502969639547345, -2.990089734917496, -1.3410762326007837, 1.6663567086811344]], "output_biases": [-0.22534835152311264, 0.39976077282619527, 0.02628848417186211, -1.1916424672912662]}